digraph Tree {
node [shape=box, style="filled, rounded", color="black", fontname="helvetica"] ;
edge [fontname="helvetica"] ;
0 [label="age <= 53.5\ngini = 0.754\nsamples = 51\nvalue = [14, 2, 19, 4, 5, 1, 6]\nclass = Electronic", fillcolor="#e4fbe7"] ;
1 [label="gender <= 0.5\ngini = 0.655\nsamples = 35\nvalue = [2, 2, 19, 4, 1, 1, 6]\nclass = Electronic", fillcolor="#a6f3af"] ;
0 -> 1 [labeldistance=2.5, labelangle=45, headlabel="True"] ;
2 [label="age <= 48.5\ngini = 0.379\nsamples = 13\nvalue = [2, 0, 10, 0, 1, 0, 0]\nclass = Electronic", fillcolor="#6fec7e"] ;
1 -> 2 ;
3 [label="age <= 47.5\ngini = 0.531\nsamples = 8\nvalue = [2, 0, 5, 0, 1, 0, 0]\nclass = Electronic", fillcolor="#9cf2a6"] ;
2 -> 3 ;
4 [label="age <= 39.0\ngini = 0.449\nsamples = 7\nvalue = [1, 0, 5, 0, 1, 0, 0]\nclass = Electronic", fillcolor="#7bee88"] ;
3 -> 4 ;
5 [label="gini = 0.0\nsamples = 3\nvalue = [0, 0, 3, 0, 0, 0, 0]\nclass = Electronic", fillcolor="#39e54d"] ;
4 -> 5 ;
6 [label="age <= 41.0\ngini = 0.625\nsamples = 4\nvalue = [1, 0, 2, 0, 1, 0, 0]\nclass = Electronic", fillcolor="#bdf6c4"] ;
4 -> 6 ;
7 [label="gini = 0.0\nsamples = 1\nvalue = [1, 0, 0, 0, 0, 0, 0]\nclass = Classical", fillcolor="#e58139"] ;
6 -> 7 ;
8 [label="age <= 43.5\ngini = 0.444\nsamples = 3\nvalue = [0, 0, 2, 0, 1, 0, 0]\nclass = Electronic", fillcolor="#9cf2a6"] ;
6 -> 8 ;
9 [label="gini = 0.0\nsamples = 1\nvalue = [0, 0, 1, 0, 0, 0, 0]\nclass = Electronic", fillcolor="#39e54d"] ;
8 -> 9 ;
10 [label="age <= 46.0\ngini = 0.5\nsamples = 2\nvalue = [0, 0, 1, 0, 1, 0, 0]\nclass = Electronic", fillcolor="#ffffff"] ;
8 -> 10 ;
11 [label="gini = 0.0\nsamples = 1\nvalue = [0, 0, 0, 0, 1, 0, 0]\nclass = Jazz", fillcolor="#3956e5"] ;
10 -> 11 ;
12 [label="gini = 0.0\nsamples = 1\nvalue = [0, 0, 1, 0, 0, 0, 0]\nclass = Electronic", fillcolor="#39e54d"] ;
10 -> 12 ;
13 [label="gini = 0.0\nsamples = 1\nvalue = [1, 0, 0, 0, 0, 0, 0]\nclass = Classical", fillcolor="#e58139"] ;
3 -> 13 ;
14 [label="gini = 0.0\nsamples = 5\nvalue = [0, 0, 5, 0, 0, 0, 0]\nclass = Electronic", fillcolor="#39e54d"] ;
2 -> 14 ;
15 [label="age <= 13.5\ngini = 0.715\nsamples = 22\nvalue = [0, 2, 9, 4, 0, 1, 6]\nclass = Electronic", fillcolor="#dafade"] ;
1 -> 15 ;
16 [label="gini = 0.0\nsamples = 3\nvalue = [0, 0, 3, 0, 0, 0, 0]\nclass = Electronic", fillcolor="#39e54d"] ;
15 -> 16 ;
17 [label="age <= 25.5\ngini = 0.742\nsamples = 19\nvalue = [0, 2, 6, 4, 0, 1, 6]\nclass = Electronic", fillcolor="#ffffff"] ;
15 -> 17 ;
18 [label="age <= 22.5\ngini = 0.667\nsamples = 9\nvalue = [0, 1, 0, 3, 0, 1, 4]\nclass = Rock", fillcolor="#fbdeeb"] ;
17 -> 18 ;
19 [label="age <= 18.5\ngini = 0.571\nsamples = 7\nvalue = [0, 1, 0, 2, 0, 0, 4]\nclass = Rock", fillcolor="#f5b0cf"] ;
18 -> 19 ;
20 [label="age <= 14.5\ngini = 0.625\nsamples = 4\nvalue = [0, 1, 0, 2, 0, 0, 1]\nclass = Hip Hop", fillcolor="#bdf6f5"] ;
19 -> 20 ;
21 [label="gini = 0.0\nsamples = 1\nvalue = [0, 0, 0, 1, 0, 0, 0]\nclass = Hip Hop", fillcolor="#39e5e2"] ;
20 -> 21 ;
22 [label="age <= 15.5\ngini = 0.667\nsamples = 3\nvalue = [0, 1, 0, 1, 0, 0, 1]\nclass = Dance", fillcolor="#ffffff"] ;
20 -> 22 ;
23 [label="gini = 0.0\nsamples = 1\nvalue = [0, 0, 0, 0, 0, 0, 1]\nclass = Rock", fillcolor="#e53986"] ;
22 -> 23 ;
24 [label="age <= 17.0\ngini = 0.5\nsamples = 2\nvalue = [0, 1, 0, 1, 0, 0, 0]\nclass = Dance", fillcolor="#ffffff"] ;
22 -> 24 ;
25 [label="gini = 0.0\nsamples = 1\nvalue = [0, 1, 0, 0, 0, 0, 0]\nclass = Dance", fillcolor="#b7e539"] ;
24 -> 25 ;
26 [label="gini = 0.0\nsamples = 1\nvalue = [0, 0, 0, 1, 0, 0, 0]\nclass = Hip Hop", fillcolor="#39e5e2"] ;
24 -> 26 ;
27 [label="gini = 0.0\nsamples = 3\nvalue = [0, 0, 0, 0, 0, 0, 3]\nclass = Rock", fillcolor="#e53986"] ;
19 -> 27 ;
28 [label="age <= 24.0\ngini = 0.5\nsamples = 2\nvalue = [0, 0, 0, 1, 0, 1, 0]\nclass = Hip Hop", fillcolor="#ffffff"] ;
18 -> 28 ;
29 [label="gini = 0.0\nsamples = 1\nvalue = [0, 0, 0, 0, 0, 1, 0]\nclass = R&B", fillcolor="#b139e5"] ;
28 -> 29 ;
30 [label="gini = 0.0\nsamples = 1\nvalue = [0, 0, 0, 1, 0, 0, 0]\nclass = Hip Hop", fillcolor="#39e5e2"] ;
28 -> 30 ;
31 [label="age <= 32.5\ngini = 0.58\nsamples = 10\nvalue = [0, 1, 6, 1, 0, 0, 2]\nclass = Electronic", fillcolor="#9cf2a6"] ;
17 -> 31 ;
32 [label="age <= 29.5\ngini = 0.245\nsamples = 7\nvalue = [0, 0, 6, 0, 0, 0, 1]\nclass = Electronic", fillcolor="#5ae96b"] ;
31 -> 32 ;
33 [label="gini = 0.0\nsamples = 4\nvalue = [0, 0, 4, 0, 0, 0, 0]\nclass = Electronic", fillcolor="#39e54d"] ;
32 -> 33 ;
34 [label="age <= 30.5\ngini = 0.444\nsamples = 3\nvalue = [0, 0, 2, 0, 0, 0, 1]\nclass = Electronic", fillcolor="#9cf2a6"] ;
32 -> 34 ;
35 [label="gini = 0.0\nsamples = 1\nvalue = [0, 0, 0, 0, 0, 0, 1]\nclass = Rock", fillcolor="#e53986"] ;
34 -> 35 ;
36 [label="gini = 0.0\nsamples = 2\nvalue = [0, 0, 2, 0, 0, 0, 0]\nclass = Electronic", fillcolor="#39e54d"] ;
34 -> 36 ;
37 [label="age <= 33.5\ngini = 0.667\nsamples = 3\nvalue = [0, 1, 0, 1, 0, 0, 1]\nclass = Dance", fillcolor="#ffffff"] ;
31 -> 37 ;
38 [label="gini = 0.0\nsamples = 1\nvalue = [0, 0, 0, 0, 0, 0, 1]\nclass = Rock", fillcolor="#e53986"] ;
37 -> 38 ;
39 [label="age <= 34.5\ngini = 0.5\nsamples = 2\nvalue = [0, 1, 0, 1, 0, 0, 0]\nclass = Dance", fillcolor="#ffffff"] ;
37 -> 39 ;
40 [label="gini = 0.0\nsamples = 1\nvalue = [0, 0, 0, 1, 0, 0, 0]\nclass = Hip Hop", fillcolor="#39e5e2"] ;
39 -> 40 ;
41 [label="gini = 0.0\nsamples = 1\nvalue = [0, 1, 0, 0, 0, 0, 0]\nclass = Dance", fillcolor="#b7e539"] ;
39 -> 41 ;
42 [label="gender <= 0.5\ngini = 0.375\nsamples = 16\nvalue = [12, 0, 0, 0, 4, 0, 0]\nclass = Classical", fillcolor="#eeab7b"] ;
0 -> 42 [labeldistance=2.5, labelangle=-45, headlabel="False"] ;
43 [label="age <= 64.5\ngini = 0.245\nsamples = 14\nvalue = [12, 0, 0, 0, 2, 0, 0]\nclass = Classical", fillcolor="#e9965a"] ;
42 -> 43 ;
44 [label="age <= 63.0\ngini = 0.375\nsamples = 8\nvalue = [6, 0, 0, 0, 2, 0, 0]\nclass = Classical", fillcolor="#eeab7b"] ;
43 -> 44 ;
45 [label="age <= 57.5\ngini = 0.245\nsamples = 7\nvalue = [6, 0, 0, 0, 1, 0, 0]\nclass = Classical", fillcolor="#e9965a"] ;
44 -> 45 ;
46 [label="gini = 0.0\nsamples = 3\nvalue = [3, 0, 0, 0, 0, 0, 0]\nclass = Classical", fillcolor="#e58139"] ;
45 -> 46 ;
47 [label="age <= 58.5\ngini = 0.375\nsamples = 4\nvalue = [3, 0, 0, 0, 1, 0, 0]\nclass = Classical", fillcolor="#eeab7b"] ;
45 -> 47 ;
48 [label="gini = 0.0\nsamples = 1\nvalue = [0, 0, 0, 0, 1, 0, 0]\nclass = Jazz", fillcolor="#3956e5"] ;
47 -> 48 ;
49 [label="gini = 0.0\nsamples = 3\nvalue = [3, 0, 0, 0, 0, 0, 0]\nclass = Classical", fillcolor="#e58139"] ;
47 -> 49 ;
50 [label="gini = 0.0\nsamples = 1\nvalue = [0, 0, 0, 0, 1, 0, 0]\nclass = Jazz", fillcolor="#3956e5"] ;
44 -> 50 ;
51 [label="gini = 0.0\nsamples = 6\nvalue = [6, 0, 0, 0, 0, 0, 0]\nclass = Classical", fillcolor="#e58139"] ;
43 -> 51 ;
52 [label="gini = 0.0\nsamples = 2\nvalue = [0, 0, 0, 0, 2, 0, 0]\nclass = Jazz", fillcolor="#3956e5"] ;
42 -> 52 ;
}